digraph Tree {
node [shape=box] ;
0 [label="X[6] <= 2775000.0\ngini = 0.5\nsamples = 236\nvalue = [118, 118]"] ;
1 [label="X[9] <= 18.5\ngini = 0.469\nsamples = 189\nvalue = [118, 71]"] ;
0 -> 1 [labeldistance=2.5, labelangle=45, headlabel="True"] ;
2 [label="X[5] <= 3.055\ngini = 0.231\nsamples = 30\nvalue = [26, 4]"] ;
1 -> 2 ;
3 [label="gini = 0.0\nsamples = 1\nvalue = [0, 1]"] ;
2 -> 3 ;
4 [label="X[7] <= 2.5\ngini = 0.185\nsamples = 29\nvalue = [26, 3]"] ;
2 -> 4 ;
5 [label="X[1] <= 3.475\ngini = 0.42\nsamples = 10\nvalue = [7, 3]"] ;
4 -> 5 ;
6 [label="gini = 0.0\nsamples = 6\nvalue = [6, 0]"] ;
5 -> 6 ;
7 [label="X[6] <= 1275000.0\ngini = 0.375\nsamples = 4\nvalue = [1, 3]"] ;
5 -> 7 ;
8 [label="gini = 0.0\nsamples = 1\nvalue = [1, 0]"] ;
7 -> 8 ;
9 [label="gini = 0.0\nsamples = 3\nvalue = [0, 3]"] ;
7 -> 9 ;
10 [label="gini = 0.0\nsamples = 19\nvalue = [19, 0]"] ;
4 -> 10 ;
11 [label="X[1] <= 3.27\ngini = 0.488\nsamples = 159\nvalue = [92, 67]"] ;
1 -> 11 ;
12 [label="X[0] <= 3.575\ngini = 0.486\nsamples = 53\nvalue = [22, 31]"] ;
11 -> 12 ;
13 [label="X[7] <= 6.5\ngini = 0.449\nsamples = 44\nvalue = [15, 29]"] ;
12 -> 13 ;
14 [label="X[0] <= 3.215\ngini = 0.427\nsamples = 42\nvalue = [13, 29]"] ;
13 -> 14 ;
15 [label="X[0] <= 2.915\ngini = 0.49\nsamples = 21\nvalue = [9, 12]"] ;
14 -> 15 ;
16 [label="X[6] <= 2450000.0\ngini = 0.219\nsamples = 8\nvalue = [1, 7]"] ;
15 -> 16 ;
17 [label="gini = 0.0\nsamples = 6\nvalue = [0, 6]"] ;
16 -> 17 ;
18 [label="X[4] <= 3.39\ngini = 0.5\nsamples = 2\nvalue = [1, 1]"] ;
16 -> 18 ;
19 [label="gini = 0.0\nsamples = 1\nvalue = [1, 0]"] ;
18 -> 19 ;
20 [label="gini = 0.0\nsamples = 1\nvalue = [0, 1]"] ;
18 -> 20 ;
21 [label="X[5] <= 3.275\ngini = 0.473\nsamples = 13\nvalue = [8, 5]"] ;
15 -> 21 ;
22 [label="X[6] <= 2110600.0\ngini = 0.32\nsamples = 10\nvalue = [8, 2]"] ;
21 -> 22 ;
23 [label="gini = 0.0\nsamples = 6\nvalue = [6, 0]"] ;
22 -> 23 ;
24 [label="X[6] <= 2503900.0\ngini = 0.5\nsamples = 4\nvalue = [2, 2]"] ;
22 -> 24 ;
25 [label="gini = 0.0\nsamples = 2\nvalue = [0, 2]"] ;
24 -> 25 ;
26 [label="gini = 0.0\nsamples = 2\nvalue = [2, 0]"] ;
24 -> 26 ;
27 [label="gini = 0.0\nsamples = 3\nvalue = [0, 3]"] ;
21 -> 27 ;
28 [label="X[6] <= 1100000.0\ngini = 0.308\nsamples = 21\nvalue = [4, 17]"] ;
14 -> 28 ;
29 [label="X[2] <= 3.18\ngini = 0.49\nsamples = 7\nvalue = [4, 3]"] ;
28 -> 29 ;
30 [label="X[2] <= 2.935\ngini = 0.375\nsamples = 4\nvalue = [1, 3]"] ;
29 -> 30 ;
31 [label="gini = 0.0\nsamples = 2\nvalue = [0, 2]"] ;
30 -> 31 ;
32 [label="X[5] <= 3.295\ngini = 0.5\nsamples = 2\nvalue = [1, 1]"] ;
30 -> 32 ;
33 [label="gini = 0.0\nsamples = 1\nvalue = [1, 0]"] ;
32 -> 33 ;
34 [label="gini = 0.0\nsamples = 1\nvalue = [0, 1]"] ;
32 -> 34 ;
35 [label="gini = 0.0\nsamples = 3\nvalue = [3, 0]"] ;
29 -> 35 ;
36 [label="gini = 0.0\nsamples = 14\nvalue = [0, 14]"] ;
28 -> 36 ;
37 [label="gini = 0.0\nsamples = 2\nvalue = [2, 0]"] ;
13 -> 37 ;
38 [label="X[7] <= 3.5\ngini = 0.346\nsamples = 9\nvalue = [7, 2]"] ;
12 -> 38 ;
39 [label="X[7] <= 2.0\ngini = 0.444\nsamples = 3\nvalue = [1, 2]"] ;
38 -> 39 ;
40 [label="gini = 0.0\nsamples = 1\nvalue = [1, 0]"] ;
39 -> 40 ;
41 [label="gini = 0.0\nsamples = 2\nvalue = [0, 2]"] ;
39 -> 41 ;
42 [label="gini = 0.0\nsamples = 6\nvalue = [6, 0]"] ;
38 -> 42 ;
43 [label="X[5] <= 3.275\ngini = 0.449\nsamples = 106\nvalue = [70, 36]"] ;
11 -> 43 ;
44 [label="gini = 0.0\nsamples = 9\nvalue = [9, 0]"] ;
43 -> 44 ;
45 [label="X[3] <= 3.355\ngini = 0.467\nsamples = 97\nvalue = [61, 36]"] ;
43 -> 45 ;
46 [label="X[6] <= 1100000.0\ngini = 0.48\nsamples = 30\nvalue = [12, 18]"] ;
45 -> 46 ;
47 [label="X[3] <= 2.91\ngini = 0.219\nsamples = 8\nvalue = [1, 7]"] ;
46 -> 47 ;
48 [label="gini = 0.0\nsamples = 1\nvalue = [1, 0]"] ;
47 -> 48 ;
49 [label="gini = 0.0\nsamples = 7\nvalue = [0, 7]"] ;
47 -> 49 ;
50 [label="X[4] <= 3.73\ngini = 0.5\nsamples = 22\nvalue = [11, 11]"] ;
46 -> 50 ;
51 [label="X[5] <= 3.53\ngini = 0.488\nsamples = 19\nvalue = [11, 8]"] ;
50 -> 51 ;
52 [label="X[0] <= 3.425\ngini = 0.498\nsamples = 15\nvalue = [7, 8]"] ;
51 -> 52 ;
53 [label="X[9] <= 19.5\ngini = 0.32\nsamples = 5\nvalue = [4, 1]"] ;
52 -> 53 ;
54 [label="gini = 0.0\nsamples = 1\nvalue = [0, 1]"] ;
53 -> 54 ;
55 [label="gini = 0.0\nsamples = 4\nvalue = [4, 0]"] ;
53 -> 55 ;
56 [label="X[9] <= 20.5\ngini = 0.42\nsamples = 10\nvalue = [3, 7]"] ;
52 -> 56 ;
57 [label="X[7] <= 1.5\ngini = 0.346\nsamples = 9\nvalue = [2, 7]"] ;
56 -> 57 ;
58 [label="gini = 0.0\nsamples = 1\nvalue = [1, 0]"] ;
57 -> 58 ;
59 [label="X[0] <= 3.455\ngini = 0.219\nsamples = 8\nvalue = [1, 7]"] ;
57 -> 59 ;
60 [label="X[9] <= 19.5\ngini = 0.5\nsamples = 2\nvalue = [1, 1]"] ;
59 -> 60 ;
61 [label="gini = 0.0\nsamples = 1\nvalue = [1, 0]"] ;
60 -> 61 ;
62 [label="gini = 0.0\nsamples = 1\nvalue = [0, 1]"] ;
60 -> 62 ;
63 [label="gini = 0.0\nsamples = 6\nvalue = [0, 6]"] ;
59 -> 63 ;
64 [label="gini = 0.0\nsamples = 1\nvalue = [1, 0]"] ;
56 -> 64 ;
65 [label="gini = 0.0\nsamples = 4\nvalue = [4, 0]"] ;
51 -> 65 ;
66 [label="gini = 0.0\nsamples = 3\nvalue = [0, 3]"] ;
50 -> 66 ;
67 [label="X[1] <= 3.705\ngini = 0.393\nsamples = 67\nvalue = [49, 18]"] ;
45 -> 67 ;
68 [label="X[0] <= 3.015\ngini = 0.315\nsamples = 51\nvalue = [41, 10]"] ;
67 -> 68 ;
69 [label="gini = 0.0\nsamples = 2\nvalue = [0, 2]"] ;
68 -> 69 ;
70 [label="X[3] <= 3.565\ngini = 0.273\nsamples = 49\nvalue = [41, 8]"] ;
68 -> 70 ;
71 [label="gini = 0.0\nsamples = 19\nvalue = [19, 0]"] ;
70 -> 71 ;
72 [label="X[6] <= 812500.0\ngini = 0.391\nsamples = 30\nvalue = [22, 8]"] ;
70 -> 72 ;
73 [label="gini = 0.0\nsamples = 2\nvalue = [0, 2]"] ;
72 -> 73 ;
74 [label="X[8] <= 2017.5\ngini = 0.337\nsamples = 28\nvalue = [22, 6]"] ;
72 -> 74 ;
75 [label="X[7] <= 5.5\ngini = 0.469\nsamples = 16\nvalue = [10, 6]"] ;
74 -> 75 ;
76 [label="X[9] <= 20.5\ngini = 0.408\nsamples = 14\nvalue = [10, 4]"] ;
75 -> 76 ;
77 [label="gini = 0.0\nsamples = 7\nvalue = [7, 0]"] ;
76 -> 77 ;
78 [label="X[5] <= 3.495\ngini = 0.49\nsamples = 7\nvalue = [3, 4]"] ;
76 -> 78 ;
79 [label="gini = 0.0\nsamples = 2\nvalue = [2, 0]"] ;
78 -> 79 ;
80 [label="X[3] <= 3.95\ngini = 0.32\nsamples = 5\nvalue = [1, 4]"] ;
78 -> 80 ;
81 [label="gini = 0.0\nsamples = 3\nvalue = [0, 3]"] ;
80 -> 81 ;
82 [label="X[5] <= 3.815\ngini = 0.5\nsamples = 2\nvalue = [1, 1]"] ;
80 -> 82 ;
83 [label="gini = 0.0\nsamples = 1\nvalue = [1, 0]"] ;
82 -> 83 ;
84 [label="gini = 0.0\nsamples = 1\nvalue = [0, 1]"] ;
82 -> 84 ;
85 [label="gini = 0.0\nsamples = 2\nvalue = [0, 2]"] ;
75 -> 85 ;
86 [label="gini = 0.0\nsamples = 12\nvalue = [12, 0]"] ;
74 -> 86 ;
87 [label="X[1] <= 3.75\ngini = 0.5\nsamples = 16\nvalue = [8, 8]"] ;
67 -> 87 ;
88 [label="gini = 0.0\nsamples = 4\nvalue = [0, 4]"] ;
87 -> 88 ;
89 [label="X[3] <= 3.6\ngini = 0.444\nsamples = 12\nvalue = [8, 4]"] ;
87 -> 89 ;
90 [label="X[3] <= 3.49\ngini = 0.49\nsamples = 7\nvalue = [3, 4]"] ;
89 -> 90 ;
91 [label="X[5] <= 3.665\ngini = 0.375\nsamples = 4\nvalue = [3, 1]"] ;
90 -> 91 ;
92 [label="gini = 0.0\nsamples = 1\nvalue = [0, 1]"] ;
91 -> 92 ;
93 [label="gini = 0.0\nsamples = 3\nvalue = [3, 0]"] ;
91 -> 93 ;
94 [label="gini = 0.0\nsamples = 3\nvalue = [0, 3]"] ;
90 -> 94 ;
95 [label="gini = 0.0\nsamples = 5\nvalue = [5, 0]"] ;
89 -> 95 ;
96 [label="gini = 0.0\nsamples = 47\nvalue = [0, 47]"] ;
0 -> 96 [labeldistance=2.5, labelangle=-45, headlabel="False"] ;
}
